digraph Tree {
node [shape=box, style="filled", color="black", fontname="helvetica"] ;
edge [fontname="helvetica"] ;
0 [label="gender <= 44.5\ngini = 0.481\nsamples = 1000\nvalue = [598, 402]\nclass = 0", fillcolor="#f6d6be"] ;
1 [label="annualsalary <= 90750.0\ngini = 0.302\nsamples = 664\nvalue = [541, 123]\nclass = 0", fillcolor="#eb9e66"] ;
0 -> 1 [labeldistance=2.5, labelangle=45, headlabel="True"] ;
2 [label="annualsalary <= 69750.0\ngini = 0.081\nsamples = 545\nvalue = [522, 23]\nclass = 0", fillcolor="#e68742"] ;
1 -> 2 ;
3 [label="gini = 0.0\nsamples = 322\nvalue = [322, 0]\nclass = 0", fillcolor="#e58139"] ;
2 -> 3 ;
4 [label="gender <= 36.5\ngini = 0.185\nsamples = 223\nvalue = [200, 23]\nclass = 0", fillcolor="#e88f50"] ;
2 -> 4 ;
5 [label="gini = 0.0\nsamples = 114\nvalue = [114, 0]\nclass = 0", fillcolor="#e58139"] ;
4 -> 5 ;
6 [label="annualsalary <= 84750.0\ngini = 0.333\nsamples = 109\nvalue = [86, 23]\nclass = 0", fillcolor="#eca36e"] ;
4 -> 6 ;
7 [label="gender <= 43.5\ngini = 0.296\nsamples = 105\nvalue = [86, 19]\nclass = 0", fillcolor="#eb9d65"] ;
6 -> 7 ;
8 [label="annualsalary <= 70500.0\ngini = 0.313\nsamples = 98\nvalue = [79, 19]\nclass = 0", fillcolor="#eb9f69"] ;
7 -> 8 ;
9 [label="age <= 0.5\ngini = 0.5\nsamples = 2\nvalue = [1, 1]\nclass = 0", fillcolor="#ffffff"] ;
8 -> 9 ;
10 [label="gini = 0.0\nsamples = 1\nvalue = [1, 0]\nclass = 0", fillcolor="#e58139"] ;
9 -> 10 ;
11 [label="gini = 0.0\nsamples = 1\nvalue = [0, 1]\nclass = 1", fillcolor="#399de5"] ;
9 -> 11 ;
12 [label="gender <= 42.5\ngini = 0.305\nsamples = 96\nvalue = [78, 18]\nclass = 0", fillcolor="#eb9e67"] ;
8 -> 12 ;
13 [label="annualsalary <= 77250.0\ngini = 0.288\nsamples = 86\nvalue = [71, 15]\nclass = 0", fillcolor="#ea9c63"] ;
12 -> 13 ;
14 [label="annualsalary <= 73250.0\ngini = 0.237\nsamples = 51\nvalue = [44, 7]\nclass = 0", fillcolor="#e99558"] ;
13 -> 14 ;
15 [label="age <= 0.5\ngini = 0.33\nsamples = 24\nvalue = [19, 5]\nclass = 0", fillcolor="#eca26d"] ;
14 -> 15 ;
16 [label="gini = 0.0\nsamples = 11\nvalue = [11, 0]\nclass = 0", fillcolor="#e58139"] ;
15 -> 16 ;
17 [label="gender <= 39.5\ngini = 0.473\nsamples = 13\nvalue = [8, 5]\nclass = 0", fillcolor="#f5d0b5"] ;
15 -> 17 ;
18 [label="gender <= 38.5\ngini = 0.245\nsamples = 7\nvalue = [6, 1]\nclass = 0", fillcolor="#e9965a"] ;
17 -> 18 ;
19 [label="annualsalary <= 71250.0\ngini = 0.375\nsamples = 4\nvalue = [3, 1]\nclass = 0", fillcolor="#eeab7b"] ;
18 -> 19 ;
20 [label="gini = 0.0\nsamples = 2\nvalue = [2, 0]\nclass = 0", fillcolor="#e58139"] ;
19 -> 20 ;
21 [label="annualsalary <= 71750.0\ngini = 0.5\nsamples = 2\nvalue = [1, 1]\nclass = 0", fillcolor="#ffffff"] ;
19 -> 21 ;
22 [label="gini = 0.0\nsamples = 1\nvalue = [0, 1]\nclass = 1", fillcolor="#399de5"] ;
21 -> 22 ;
23 [label="gini = 0.0\nsamples = 1\nvalue = [1, 0]\nclass = 0", fillcolor="#e58139"] ;
21 -> 23 ;
24 [label="gini = 0.0\nsamples = 3\nvalue = [3, 0]\nclass = 0", fillcolor="#e58139"] ;
18 -> 24 ;
25 [label="annualsalary <= 71500.0\ngini = 0.444\nsamples = 6\nvalue = [2, 4]\nclass = 1", fillcolor="#9ccef2"] ;
17 -> 25 ;
26 [label="gini = 0.0\nsamples = 1\nvalue = [0, 1]\nclass = 1", fillcolor="#399de5"] ;
25 -> 26 ;
27 [label="annualsalary <= 72250.0\ngini = 0.48\nsamples = 5\nvalue = [2, 3]\nclass = 1", fillcolor="#bddef6"] ;
25 -> 27 ;
28 [label="gini = 0.0\nsamples = 1\nvalue = [1, 0]\nclass = 0", fillcolor="#e58139"] ;
27 -> 28 ;
29 [label="gender <= 40.5\ngini = 0.375\nsamples = 4\nvalue = [1, 3]\nclass = 1", fillcolor="#7bbeee"] ;
27 -> 29 ;
30 [label="gini = 0.5\nsamples = 2\nvalue = [1, 1]\nclass = 0", fillcolor="#ffffff"] ;
29 -> 30 ;
31 [label="gini = 0.0\nsamples = 2\nvalue = [0, 2]\nclass = 1", fillcolor="#399de5"] ;
29 -> 31 ;
32 [label="age <= 0.5\ngini = 0.137\nsamples = 27\nvalue = [25, 2]\nclass = 0", fillcolor="#e78b49"] ;
14 -> 32 ;
33 [label="gender <= 40.5\ngini = 0.26\nsamples = 13\nvalue = [11, 2]\nclass = 0", fillcolor="#ea985d"] ;
32 -> 33 ;
34 [label="annualsalary <= 74750.0\ngini = 0.444\nsamples = 6\nvalue = [4, 2]\nclass = 0", fillcolor="#f2c09c"] ;
33 -> 34 ;
35 [label="gini = 0.0\nsamples = 2\nvalue = [2, 0]\nclass = 0", fillcolor="#e58139"] ;
34 -> 35 ;
36 [label="gender <= 38.0\ngini = 0.5\nsamples = 4\nvalue = [2, 2]\nclass = 0", fillcolor="#ffffff"] ;
34 -> 36 ;
37 [label="gini = 0.0\nsamples = 1\nvalue = [1, 0]\nclass = 0", fillcolor="#e58139"] ;
36 -> 37 ;
38 [label="gender <= 39.5\ngini = 0.444\nsamples = 3\nvalue = [1, 2]\nclass = 1", fillcolor="#9ccef2"] ;
36 -> 38 ;
39 [label="gini = 0.0\nsamples = 1\nvalue = [0, 1]\nclass = 1", fillcolor="#399de5"] ;
38 -> 39 ;
40 [label="annualsalary <= 75750.0\ngini = 0.5\nsamples = 2\nvalue = [1, 1]\nclass = 0", fillcolor="#ffffff"] ;
38 -> 40 ;
41 [label="gini = 0.0\nsamples = 1\nvalue = [1, 0]\nclass = 0", fillcolor="#e58139"] ;
40 -> 41 ;
42 [label="gini = 0.0\nsamples = 1\nvalue = [0, 1]\nclass = 1", fillcolor="#399de5"] ;
40 -> 42 ;
43 [label="gini = 0.0\nsamples = 7\nvalue = [7, 0]\nclass = 0", fillcolor="#e58139"] ;
33 -> 43 ;
44 [label="gini = 0.0\nsamples = 14\nvalue = [14, 0]\nclass = 0", fillcolor="#e58139"] ;
32 -> 44 ;
45 [label="gender <= 37.5\ngini = 0.353\nsamples = 35\nvalue = [27, 8]\nclass = 0", fillcolor="#eda674"] ;
13 -> 45 ;
46 [label="annualsalary <= 79500.0\ngini = 0.5\nsamples = 4\nvalue = [2, 2]\nclass = 0", fillcolor="#ffffff"] ;
45 -> 46 ;
47 [label="gini = 0.0\nsamples = 2\nvalue = [0, 2]\nclass = 1", fillcolor="#399de5"] ;
46 -> 47 ;
48 [label="gini = 0.0\nsamples = 2\nvalue = [2, 0]\nclass = 0", fillcolor="#e58139"] ;
46 -> 48 ;
49 [label="annualsalary <= 79250.0\ngini = 0.312\nsamples = 31\nvalue = [25, 6]\nclass = 0", fillcolor="#eb9f69"] ;
45 -> 49 ;
50 [label="gender <= 41.5\ngini = 0.198\nsamples = 9\nvalue = [8, 1]\nclass = 0", fillcolor="#e89152"] ;
49 -> 50 ;
51 [label="gini = 0.0\nsamples = 7\nvalue = [7, 0]\nclass = 0", fillcolor="#e58139"] ;
50 -> 51 ;
52 [label="annualsalary <= 78250.0\ngini = 0.5\nsamples = 2\nvalue = [1, 1]\nclass = 0", fillcolor="#ffffff"] ;
50 -> 52 ;
53 [label="gini = 0.0\nsamples = 1\nvalue = [0, 1]\nclass = 1", fillcolor="#399de5"] ;
52 -> 53 ;
54 [label="gini = 0.0\nsamples = 1\nvalue = [1, 0]\nclass = 0", fillcolor="#e58139"] ;
52 -> 54 ;
55 [label="annualsalary <= 81000.0\ngini = 0.351\nsamples = 22\nvalue = [17, 5]\nclass = 0", fillcolor="#eda673"] ;
49 -> 55 ;
56 [label="age <= 0.5\ngini = 0.426\nsamples = 13\nvalue = [9, 4]\nclass = 0", fillcolor="#f1b991"] ;
55 -> 56 ;
57 [label="gender <= 41.5\ngini = 0.49\nsamples = 7\nvalue = [4, 3]\nclass = 0", fillcolor="#f8e0ce"] ;
56 -> 57 ;
58 [label="gender <= 40.5\ngini = 0.444\nsamples = 6\nvalue = [4, 2]\nclass = 0", fillcolor="#f2c09c"] ;
57 -> 58 ;
59 [label="annualsalary <= 79750.0\ngini = 0.48\nsamples = 5\nvalue = [3, 2]\nclass = 0", fillcolor="#f6d5bd"] ;
58 -> 59 ;
60 [label="gini = 0.5\nsamples = 2\nvalue = [1, 1]\nclass = 0", fillcolor="#ffffff"] ;
59 -> 60 ;
61 [label="annualsalary <= 80250.0\ngini = 0.444\nsamples = 3\nvalue = [2, 1]\nclass = 0", fillcolor="#f2c09c"] ;
59 -> 61 ;
62 [label="gini = 0.0\nsamples = 1\nvalue = [1, 0]\nclass = 0", fillcolor="#e58139"] ;
61 -> 62 ;
63 [label="gini = 0.5\nsamples = 2\nvalue = [1, 1]\nclass = 0", fillcolor="#ffffff"] ;
61 -> 63 ;
64 [label="gini = 0.0\nsamples = 1\nvalue = [1, 0]\nclass = 0", fillcolor="#e58139"] ;
58 -> 64 ;
65 [label="gini = 0.0\nsamples = 1\nvalue = [0, 1]\nclass = 1", fillcolor="#399de5"] ;
57 -> 65 ;
66 [label="gender <= 39.0\ngini = 0.278\nsamples = 6\nvalue = [5, 1]\nclass = 0", fillcolor="#ea9a61"] ;
56 -> 66 ;
67 [label="gini = 0.0\nsamples = 1\nvalue = [0, 1]\nclass = 1", fillcolor="#399de5"] ;
66 -> 67 ;
68 [label="gini = 0.0\nsamples = 5\nvalue = [5, 0]\nclass = 0", fillcolor="#e58139"] ;
66 -> 68 ;
69 [label="age <= 0.5\ngini = 0.198\nsamples = 9\nvalue = [8, 1]\nclass = 0", fillcolor="#e89152"] ;
55 -> 69 ;
70 [label="gini = 0.0\nsamples = 7\nvalue = [7, 0]\nclass = 0", fillcolor="#e58139"] ;
69 -> 70 ;
71 [label="gender <= 39.0\ngini = 0.5\nsamples = 2\nvalue = [1, 1]\nclass = 0", fillcolor="#ffffff"] ;
69 -> 71 ;
72 [label="gini = 0.0\nsamples = 1\nvalue = [1, 0]\nclass = 0", fillcolor="#e58139"] ;
71 -> 72 ;
73 [label="gini = 0.0\nsamples = 1\nvalue = [0, 1]\nclass = 1", fillcolor="#399de5"] ;
71 -> 73 ;
74 [label="annualsalary <= 75500.0\ngini = 0.42\nsamples = 10\nvalue = [7, 3]\nclass = 0", fillcolor="#f0b78e"] ;
12 -> 74 ;
75 [label="age <= 0.5\ngini = 0.5\nsamples = 4\nvalue = [2, 2]\nclass = 0", fillcolor="#ffffff"] ;
74 -> 75 ;
76 [label="gini = 0.0\nsamples = 2\nvalue = [2, 0]\nclass = 0", fillcolor="#e58139"] ;
75 -> 76 ;
77 [label="gini = 0.0\nsamples = 2\nvalue = [0, 2]\nclass = 1", fillcolor="#399de5"] ;
75 -> 77 ;
78 [label="annualsalary <= 81000.0\ngini = 0.278\nsamples = 6\nvalue = [5, 1]\nclass = 0", fillcolor="#ea9a61"] ;
74 -> 78 ;
79 [label="gini = 0.0\nsamples = 4\nvalue = [4, 0]\nclass = 0", fillcolor="#e58139"] ;
78 -> 79 ;
80 [label="age <= 0.5\ngini = 0.5\nsamples = 2\nvalue = [1, 1]\nclass = 0", fillcolor="#ffffff"] ;
78 -> 80 ;
81 [label="gini = 0.0\nsamples = 1\nvalue = [0, 1]\nclass = 1", fillcolor="#399de5"] ;
80 -> 81 ;
82 [label="gini = 0.0\nsamples = 1\nvalue = [1, 0]\nclass = 0", fillcolor="#e58139"] ;
80 -> 82 ;
83 [label="gini = 0.0\nsamples = 7\nvalue = [7, 0]\nclass = 0", fillcolor="#e58139"] ;
7 -> 83 ;
84 [label="gini = 0.0\nsamples = 4\nvalue = [0, 4]\nclass = 1", fillcolor="#399de5"] ;
6 -> 84 ;
85 [label="annualsalary <= 119750.0\ngini = 0.268\nsamples = 119\nvalue = [19, 100]\nclass = 1", fillcolor="#5fb0ea"] ;
1 -> 85 ;
86 [label="annualsalary <= 109000.0\ngini = 0.398\nsamples = 62\nvalue = [17, 45]\nclass = 1", fillcolor="#84c2ef"] ;
85 -> 86 ;
87 [label="gender <= 26.5\ngini = 0.165\nsamples = 33\nvalue = [3, 30]\nclass = 1", fillcolor="#4da7e8"] ;
86 -> 87 ;
88 [label="gini = 0.0\nsamples = 1\nvalue = [1, 0]\nclass = 0", fillcolor="#e58139"] ;
87 -> 88 ;
89 [label="gender <= 35.5\ngini = 0.117\nsamples = 32\nvalue = [2, 30]\nclass = 1", fillcolor="#46a4e7"] ;
87 -> 89 ;
90 [label="annualsalary <= 93750.0\ngini = 0.32\nsamples = 10\nvalue = [2, 8]\nclass = 1", fillcolor="#6ab6ec"] ;
89 -> 90 ;
91 [label="gender <= 31.5\ngini = 0.5\nsamples = 2\nvalue = [1, 1]\nclass = 0", fillcolor="#ffffff"] ;
90 -> 91 ;
92 [label="gini = 0.0\nsamples = 1\nvalue = [1, 0]\nclass = 0", fillcolor="#e58139"] ;
91 -> 92 ;
93 [label="gini = 0.0\nsamples = 1\nvalue = [0, 1]\nclass = 1", fillcolor="#399de5"] ;
91 -> 93 ;
94 [label="gender <= 34.0\ngini = 0.219\nsamples = 8\nvalue = [1, 7]\nclass = 1", fillcolor="#55abe9"] ;
90 -> 94 ;
95 [label="gini = 0.0\nsamples = 6\nvalue = [0, 6]\nclass = 1", fillcolor="#399de5"] ;
94 -> 95 ;
96 [label="annualsalary <= 102500.0\ngini = 0.5\nsamples = 2\nvalue = [1, 1]\nclass = 0", fillcolor="#ffffff"] ;
94 -> 96 ;
97 [label="gini = 0.0\nsamples = 1\nvalue = [0, 1]\nclass = 1", fillcolor="#399de5"] ;
96 -> 97 ;
98 [label="gini = 0.0\nsamples = 1\nvalue = [1, 0]\nclass = 0", fillcolor="#e58139"] ;
96 -> 98 ;
99 [label="gini = 0.0\nsamples = 22\nvalue = [0, 22]\nclass = 1", fillcolor="#399de5"] ;
89 -> 99 ;
100 [label="gender <= 42.0\ngini = 0.499\nsamples = 29\nvalue = [14, 15]\nclass = 1", fillcolor="#f2f8fd"] ;
86 -> 100 ;
101 [label="gender <= 30.5\ngini = 0.493\nsamples = 25\nvalue = [14, 11]\nclass = 0", fillcolor="#f9e4d5"] ;
100 -> 101 ;
102 [label="gini = 0.0\nsamples = 3\nvalue = [3, 0]\nclass = 0", fillcolor="#e58139"] ;
101 -> 102 ;
103 [label="annualsalary <= 117750.0\ngini = 0.5\nsamples = 22\nvalue = [11, 11]\nclass = 0", fillcolor="#ffffff"] ;
101 -> 103 ;
104 [label="annualsalary <= 110750.0\ngini = 0.469\nsamples = 16\nvalue = [10, 6]\nclass = 0", fillcolor="#f5cdb0"] ;
103 -> 104 ;
105 [label="gini = 0.0\nsamples = 1\nvalue = [1, 0]\nclass = 0", fillcolor="#e58139"] ;
104 -> 105 ;
106 [label="annualsalary <= 117250.0\ngini = 0.48\nsamples = 15\nvalue = [9, 6]\nclass = 0", fillcolor="#f6d5bd"] ;
104 -> 106 ;
107 [label="gender <= 34.5\ngini = 0.49\nsamples = 14\nvalue = [8, 6]\nclass = 0", fillcolor="#f8e0ce"] ;
106 -> 107 ;
108 [label="annualsalary <= 112500.0\ngini = 0.444\nsamples = 6\nvalue = [4, 2]\nclass = 0", fillcolor="#f2c09c"] ;
107 -> 108 ;
109 [label="gini = 0.0\nsamples = 1\nvalue = [0, 1]\nclass = 1", fillcolor="#399de5"] ;
108 -> 109 ;
110 [label="annualsalary <= 116000.0\ngini = 0.32\nsamples = 5\nvalue = [4, 1]\nclass = 0", fillcolor="#eca06a"] ;
108 -> 110 ;
111 [label="gini = 0.0\nsamples = 3\nvalue = [3, 0]\nclass = 0", fillcolor="#e58139"] ;
110 -> 111 ;
112 [label="gini = 0.5\nsamples = 2\nvalue = [1, 1]\nclass = 0", fillcolor="#ffffff"] ;
110 -> 112 ;
113 [label="annualsalary <= 112500.0\ngini = 0.5\nsamples = 8\nvalue = [4, 4]\nclass = 0", fillcolor="#ffffff"] ;
107 -> 113 ;
114 [label="gini = 0.0\nsamples = 1\nvalue = [1, 0]\nclass = 0", fillcolor="#e58139"] ;
113 -> 114 ;
115 [label="annualsalary <= 116000.0\ngini = 0.49\nsamples = 7\nvalue = [3, 4]\nclass = 1", fillcolor="#cee6f8"] ;
113 -> 115 ;
116 [label="gender <= 38.5\ngini = 0.444\nsamples = 6\nvalue = [2, 4]\nclass = 1", fillcolor="#9ccef2"] ;
115 -> 116 ;
117 [label="gini = 0.0\nsamples = 2\nvalue = [0, 2]\nclass = 1", fillcolor="#399de5"] ;
116 -> 117 ;
118 [label="annualsalary <= 114000.0\ngini = 0.5\nsamples = 4\nvalue = [2, 2]\nclass = 0", fillcolor="#ffffff"] ;
116 -> 118 ;
119 [label="gini = 0.0\nsamples = 1\nvalue = [1, 0]\nclass = 0", fillcolor="#e58139"] ;
118 -> 119 ;
120 [label="annualsalary <= 115000.0\ngini = 0.444\nsamples = 3\nvalue = [1, 2]\nclass = 1", fillcolor="#9ccef2"] ;
118 -> 120 ;
121 [label="gender <= 40.0\ngini = 0.5\nsamples = 2\nvalue = [1, 1]\nclass = 0", fillcolor="#ffffff"] ;
120 -> 121 ;
122 [label="gini = 0.0\nsamples = 1\nvalue = [0, 1]\nclass = 1", fillcolor="#399de5"] ;
121 -> 122 ;
123 [label="gini = 0.0\nsamples = 1\nvalue = [1, 0]\nclass = 0", fillcolor="#e58139"] ;
121 -> 123 ;
124 [label="gini = 0.0\nsamples = 1\nvalue = [0, 1]\nclass = 1", fillcolor="#399de5"] ;
120 -> 124 ;
125 [label="gini = 0.0\nsamples = 1\nvalue = [1, 0]\nclass = 0", fillcolor="#e58139"] ;
115 -> 125 ;
126 [label="gini = 0.0\nsamples = 1\nvalue = [1, 0]\nclass = 0", fillcolor="#e58139"] ;
106 -> 126 ;
127 [label="gender <= 32.5\ngini = 0.278\nsamples = 6\nvalue = [1, 5]\nclass = 1", fillcolor="#61b1ea"] ;
103 -> 127 ;
128 [label="gini = 0.0\nsamples = 2\nvalue = [0, 2]\nclass = 1", fillcolor="#399de5"] ;
127 -> 128 ;
129 [label="gender <= 34.5\ngini = 0.375\nsamples = 4\nvalue = [1, 3]\nclass = 1", fillcolor="#7bbeee"] ;
127 -> 129 ;
130 [label="gini = 0.5\nsamples = 2\nvalue = [1, 1]\nclass = 0", fillcolor="#ffffff"] ;
129 -> 130 ;
131 [label="gini = 0.0\nsamples = 2\nvalue = [0, 2]\nclass = 1", fillcolor="#399de5"] ;
129 -> 131 ;
132 [label="gini = 0.0\nsamples = 4\nvalue = [0, 4]\nclass = 1", fillcolor="#399de5"] ;
100 -> 132 ;
133 [label="gender <= 42.5\ngini = 0.068\nsamples = 57\nvalue = [2, 55]\nclass = 1", fillcolor="#40a1e6"] ;
85 -> 133 ;
134 [label="gini = 0.0\nsamples = 50\nvalue = [0, 50]\nclass = 1", fillcolor="#399de5"] ;
133 -> 134 ;
135 [label="age <= 0.5\ngini = 0.408\nsamples = 7\nvalue = [2, 5]\nclass = 1", fillcolor="#88c4ef"] ;
133 -> 135 ;
136 [label="annualsalary <= 136750.0\ngini = 0.5\nsamples = 4\nvalue = [2, 2]\nclass = 0", fillcolor="#ffffff"] ;
135 -> 136 ;
137 [label="gini = 0.0\nsamples = 2\nvalue = [2, 0]\nclass = 0", fillcolor="#e58139"] ;
136 -> 137 ;
138 [label="gini = 0.0\nsamples = 2\nvalue = [0, 2]\nclass = 1", fillcolor="#399de5"] ;
136 -> 138 ;
139 [label="gini = 0.0\nsamples = 3\nvalue = [0, 3]\nclass = 1", fillcolor="#399de5"] ;
135 -> 139 ;
140 [label="gender <= 47.5\ngini = 0.282\nsamples = 336\nvalue = [57, 279]\nclass = 1", fillcolor="#61b1ea"] ;
0 -> 140 [labeldistance=2.5, labelangle=-45, headlabel="False"] ;
141 [label="annualsalary <= 37250.0\ngini = 0.45\nsamples = 73\nvalue = [25, 48]\nclass = 1", fillcolor="#a0d0f3"] ;
140 -> 141 ;
142 [label="age <= 0.5\ngini = 0.172\nsamples = 21\nvalue = [2, 19]\nclass = 1", fillcolor="#4ea7e8"] ;
141 -> 142 ;
143 [label="annualsalary <= 26750.0\ngini = 0.408\nsamples = 7\nvalue = [2, 5]\nclass = 1", fillcolor="#88c4ef"] ;
142 -> 143 ;
144 [label="gender <= 45.5\ngini = 0.5\nsamples = 4\nvalue = [2, 2]\nclass = 0", fillcolor="#ffffff"] ;
143 -> 144 ;
145 [label="gini = 0.0\nsamples = 1\nvalue = [0, 1]\nclass = 1", fillcolor="#399de5"] ;
144 -> 145 ;
146 [label="annualsalary <= 22750.0\ngini = 0.444\nsamples = 3\nvalue = [2, 1]\nclass = 0", fillcolor="#f2c09c"] ;
144 -> 146 ;
147 [label="gini = 0.0\nsamples = 1\nvalue = [1, 0]\nclass = 0", fillcolor="#e58139"] ;
146 -> 147 ;
148 [label="gender <= 46.5\ngini = 0.5\nsamples = 2\nvalue = [1, 1]\nclass = 0", fillcolor="#ffffff"] ;
146 -> 148 ;
149 [label="gini = 0.0\nsamples = 1\nvalue = [0, 1]\nclass = 1", fillcolor="#399de5"] ;
148 -> 149 ;
150 [label="gini = 0.0\nsamples = 1\nvalue = [1, 0]\nclass = 0", fillcolor="#e58139"] ;
148 -> 150 ;
151 [label="gini = 0.0\nsamples = 3\nvalue = [0, 3]\nclass = 1", fillcolor="#399de5"] ;
143 -> 151 ;
152 [label="gini = 0.0\nsamples = 14\nvalue = [0, 14]\nclass = 1", fillcolor="#399de5"] ;
142 -> 152 ;
153 [label="annualsalary <= 101250.0\ngini = 0.493\nsamples = 52\nvalue = [23, 29]\nclass = 1", fillcolor="#d6ebfa"] ;
141 -> 153 ;
154 [label="annualsalary <= 53250.0\ngini = 0.475\nsamples = 36\nvalue = [22, 14]\nclass = 0", fillcolor="#f6d1b7"] ;
153 -> 154 ;
155 [label="annualsalary <= 48000.0\ngini = 0.463\nsamples = 11\nvalue = [4, 7]\nclass = 1", fillcolor="#aad5f4"] ;
154 -> 155 ;
156 [label="gender <= 46.5\ngini = 0.5\nsamples = 8\nvalue = [4, 4]\nclass = 0", fillcolor="#ffffff"] ;
155 -> 156 ;
157 [label="annualsalary <= 40750.0\ngini = 0.375\nsamples = 4\nvalue = [1, 3]\nclass = 1", fillcolor="#7bbeee"] ;
156 -> 157 ;
158 [label="gini = 0.0\nsamples = 1\nvalue = [1, 0]\nclass = 0", fillcolor="#e58139"] ;
157 -> 158 ;
159 [label="gini = 0.0\nsamples = 3\nvalue = [0, 3]\nclass = 1", fillcolor="#399de5"] ;
157 -> 159 ;
160 [label="annualsalary <= 42750.0\ngini = 0.375\nsamples = 4\nvalue = [3, 1]\nclass = 0", fillcolor="#eeab7b"] ;
156 -> 160 ;
161 [label="annualsalary <= 42000.0\ngini = 0.5\nsamples = 2\nvalue = [1, 1]\nclass = 0", fillcolor="#ffffff"] ;
160 -> 161 ;
162 [label="gini = 0.0\nsamples = 1\nvalue = [1, 0]\nclass = 0", fillcolor="#e58139"] ;
161 -> 162 ;
163 [label="gini = 0.0\nsamples = 1\nvalue = [0, 1]\nclass = 1", fillcolor="#399de5"] ;
161 -> 163 ;
164 [label="gini = 0.0\nsamples = 2\nvalue = [2, 0]\nclass = 0", fillcolor="#e58139"] ;
160 -> 164 ;
165 [label="gini = 0.0\nsamples = 3\nvalue = [0, 3]\nclass = 1", fillcolor="#399de5"] ;
155 -> 165 ;
166 [label="annualsalary <= 74750.0\ngini = 0.403\nsamples = 25\nvalue = [18, 7]\nclass = 0", fillcolor="#efb286"] ;
154 -> 166 ;
167 [label="gini = 0.0\nsamples = 9\nvalue = [9, 0]\nclass = 0", fillcolor="#e58139"] ;
166 -> 167 ;
168 [label="age <= 0.5\ngini = 0.492\nsamples = 16\nvalue = [9, 7]\nclass = 0", fillcolor="#f9e3d3"] ;
166 -> 168 ;
169 [label="gender <= 45.5\ngini = 0.346\nsamples = 9\nvalue = [7, 2]\nclass = 0", fillcolor="#eca572"] ;
168 -> 169 ;
170 [label="annualsalary <= 82000.0\ngini = 0.5\nsamples = 4\nvalue = [2, 2]\nclass = 0", fillcolor="#ffffff"] ;
169 -> 170 ;
171 [label="gini = 0.0\nsamples = 2\nvalue = [2, 0]\nclass = 0", fillcolor="#e58139"] ;
170 -> 171 ;
172 [label="gini = 0.0\nsamples = 2\nvalue = [0, 2]\nclass = 1", fillcolor="#399de5"] ;
170 -> 172 ;
173 [label="gini = 0.0\nsamples = 5\nvalue = [5, 0]\nclass = 0", fillcolor="#e58139"] ;
169 -> 173 ;
174 [label="annualsalary <= 84250.0\ngini = 0.408\nsamples = 7\nvalue = [2, 5]\nclass = 1", fillcolor="#88c4ef"] ;
168 -> 174 ;
175 [label="annualsalary <= 77250.0\ngini = 0.48\nsamples = 5\nvalue = [2, 3]\nclass = 1", fillcolor="#bddef6"] ;
174 -> 175 ;
176 [label="gini = 0.0\nsamples = 1\nvalue = [0, 1]\nclass = 1", fillcolor="#399de5"] ;
175 -> 176 ;
177 [label="gender <= 45.5\ngini = 0.5\nsamples = 4\nvalue = [2, 2]\nclass = 0", fillcolor="#ffffff"] ;
175 -> 177 ;
178 [label="gini = 0.0\nsamples = 1\nvalue = [1, 0]\nclass = 0", fillcolor="#e58139"] ;
177 -> 178 ;
179 [label="gender <= 46.5\ngini = 0.444\nsamples = 3\nvalue = [1, 2]\nclass = 1", fillcolor="#9ccef2"] ;
177 -> 179 ;
180 [label="annualsalary <= 79750.0\ngini = 0.5\nsamples = 2\nvalue = [1, 1]\nclass = 0", fillcolor="#ffffff"] ;
179 -> 180 ;
181 [label="gini = 0.0\nsamples = 1\nvalue = [0, 1]\nclass = 1", fillcolor="#399de5"] ;
180 -> 181 ;
182 [label="gini = 0.0\nsamples = 1\nvalue = [1, 0]\nclass = 0", fillcolor="#e58139"] ;
180 -> 182 ;
183 [label="gini = 0.0\nsamples = 1\nvalue = [0, 1]\nclass = 1", fillcolor="#399de5"] ;
179 -> 183 ;
184 [label="gini = 0.0\nsamples = 2\nvalue = [0, 2]\nclass = 1", fillcolor="#399de5"] ;
174 -> 184 ;
185 [label="annualsalary <= 134000.0\ngini = 0.117\nsamples = 16\nvalue = [1, 15]\nclass = 1", fillcolor="#46a4e7"] ;
153 -> 185 ;
186 [label="gini = 0.0\nsamples = 11\nvalue = [0, 11]\nclass = 1", fillcolor="#399de5"] ;
185 -> 186 ;
187 [label="annualsalary <= 138000.0\ngini = 0.32\nsamples = 5\nvalue = [1, 4]\nclass = 1", fillcolor="#6ab6ec"] ;
185 -> 187 ;
188 [label="gini = 0.0\nsamples = 1\nvalue = [1, 0]\nclass = 0", fillcolor="#e58139"] ;
187 -> 188 ;
189 [label="gini = 0.0\nsamples = 4\nvalue = [0, 4]\nclass = 1", fillcolor="#399de5"] ;
187 -> 189 ;
190 [label="annualsalary <= 41750.0\ngini = 0.214\nsamples = 263\nvalue = [32, 231]\nclass = 1", fillcolor="#54abe9"] ;
140 -> 190 ;
191 [label="annualsalary <= 25000.0\ngini = 0.026\nsamples = 77\nvalue = [1, 76]\nclass = 1", fillcolor="#3c9ee5"] ;
190 -> 191 ;
192 [label="gender <= 49.5\ngini = 0.142\nsamples = 13\nvalue = [1, 12]\nclass = 1", fillcolor="#49a5e7"] ;
191 -> 192 ;
193 [label="age <= 0.5\ngini = 0.444\nsamples = 3\nvalue = [1, 2]\nclass = 1", fillcolor="#9ccef2"] ;
192 -> 193 ;
194 [label="gini = 0.0\nsamples = 1\nvalue = [1, 0]\nclass = 0", fillcolor="#e58139"] ;
193 -> 194 ;
195 [label="gini = 0.0\nsamples = 2\nvalue = [0, 2]\nclass = 1", fillcolor="#399de5"] ;
193 -> 195 ;
196 [label="gini = 0.0\nsamples = 10\nvalue = [0, 10]\nclass = 1", fillcolor="#399de5"] ;
192 -> 196 ;
197 [label="gini = 0.0\nsamples = 64\nvalue = [0, 64]\nclass = 1", fillcolor="#399de5"] ;
191 -> 197 ;
198 [label="annualsalary <= 85000.0\ngini = 0.278\nsamples = 186\nvalue = [31, 155]\nclass = 1", fillcolor="#61b1ea"] ;
190 -> 198 ;
199 [label="gender <= 52.5\ngini = 0.427\nsamples = 68\nvalue = [21, 47]\nclass = 1", fillcolor="#91c9f1"] ;
198 -> 199 ;
200 [label="annualsalary <= 43750.0\ngini = 0.494\nsamples = 27\nvalue = [15, 12]\nclass = 0", fillcolor="#fae6d7"] ;
199 -> 200 ;
201 [label="gini = 0.0\nsamples = 2\nvalue = [0, 2]\nclass = 1", fillcolor="#399de5"] ;
200 -> 201 ;
202 [label="annualsalary <= 46500.0\ngini = 0.48\nsamples = 25\nvalue = [15, 10]\nclass = 0", fillcolor="#f6d5bd"] ;
200 -> 202 ;
203 [label="gini = 0.0\nsamples = 4\nvalue = [4, 0]\nclass = 0", fillcolor="#e58139"] ;
202 -> 203 ;
204 [label="annualsalary <= 59250.0\ngini = 0.499\nsamples = 21\nvalue = [11, 10]\nclass = 0", fillcolor="#fdf4ed"] ;
202 -> 204 ;
205 [label="annualsalary <= 50000.0\ngini = 0.375\nsamples = 8\nvalue = [2, 6]\nclass = 1", fillcolor="#7bbeee"] ;
204 -> 205 ;
206 [label="annualsalary <= 48000.0\ngini = 0.444\nsamples = 3\nvalue = [2, 1]\nclass = 0", fillcolor="#f2c09c"] ;
205 -> 206 ;
207 [label="gini = 0.0\nsamples = 1\nvalue = [0, 1]\nclass = 1", fillcolor="#399de5"] ;
206 -> 207 ;
208 [label="gini = 0.0\nsamples = 2\nvalue = [2, 0]\nclass = 0", fillcolor="#e58139"] ;
206 -> 208 ;
209 [label="gini = 0.0\nsamples = 5\nvalue = [0, 5]\nclass = 1", fillcolor="#399de5"] ;
205 -> 209 ;
210 [label="annualsalary <= 70750.0\ngini = 0.426\nsamples = 13\nvalue = [9, 4]\nclass = 0", fillcolor="#f1b991"] ;
204 -> 210 ;
211 [label="gini = 0.0\nsamples = 3\nvalue = [3, 0]\nclass = 0", fillcolor="#e58139"] ;
210 -> 211 ;
212 [label="age <= 0.5\ngini = 0.48\nsamples = 10\nvalue = [6, 4]\nclass = 0", fillcolor="#f6d5bd"] ;
210 -> 212 ;
213 [label="gini = 0.0\nsamples = 2\nvalue = [2, 0]\nclass = 0", fillcolor="#e58139"] ;
212 -> 213 ;
214 [label="gender <= 51.5\ngini = 0.5\nsamples = 8\nvalue = [4, 4]\nclass = 0", fillcolor="#ffffff"] ;
212 -> 214 ;
215 [label="gender <= 50.5\ngini = 0.49\nsamples = 7\nvalue = [3, 4]\nclass = 1", fillcolor="#cee6f8"] ;
214 -> 215 ;
216 [label="gender <= 49.5\ngini = 0.5\nsamples = 6\nvalue = [3, 3]\nclass = 0", fillcolor="#ffffff"] ;
215 -> 216 ;
217 [label="gender <= 48.5\ngini = 0.48\nsamples = 5\nvalue = [2, 3]\nclass = 1", fillcolor="#bddef6"] ;
216 -> 217 ;
218 [label="annualsalary <= 77750.0\ngini = 0.5\nsamples = 2\nvalue = [1, 1]\nclass = 0", fillcolor="#ffffff"] ;
217 -> 218 ;
219 [label="gini = 0.0\nsamples = 1\nvalue = [0, 1]\nclass = 1", fillcolor="#399de5"] ;
218 -> 219 ;
220 [label="gini = 0.0\nsamples = 1\nvalue = [1, 0]\nclass = 0", fillcolor="#e58139"] ;
218 -> 220 ;
221 [label="annualsalary <= 74750.0\ngini = 0.444\nsamples = 3\nvalue = [1, 2]\nclass = 1", fillcolor="#9ccef2"] ;
217 -> 221 ;
222 [label="gini = 0.0\nsamples = 1\nvalue = [1, 0]\nclass = 0", fillcolor="#e58139"] ;
221 -> 222 ;
223 [label="gini = 0.0\nsamples = 2\nvalue = [0, 2]\nclass = 1", fillcolor="#399de5"] ;
221 -> 223 ;
224 [label="gini = 0.0\nsamples = 1\nvalue = [1, 0]\nclass = 0", fillcolor="#e58139"] ;
216 -> 224 ;
225 [label="gini = 0.0\nsamples = 1\nvalue = [0, 1]\nclass = 1", fillcolor="#399de5"] ;
215 -> 225 ;
226 [label="gini = 0.0\nsamples = 1\nvalue = [1, 0]\nclass = 0", fillcolor="#e58139"] ;
214 -> 226 ;
227 [label="age <= 0.5\ngini = 0.25\nsamples = 41\nvalue = [6, 35]\nclass = 1", fillcolor="#5baee9"] ;
199 -> 227 ;
228 [label="annualsalary <= 45250.0\ngini = 0.444\nsamples = 18\nvalue = [6, 12]\nclass = 1", fillcolor="#9ccef2"] ;
227 -> 228 ;
229 [label="gini = 0.0\nsamples = 3\nvalue = [3, 0]\nclass = 0", fillcolor="#e58139"] ;
228 -> 229 ;
230 [label="annualsalary <= 82500.0\ngini = 0.32\nsamples = 15\nvalue = [3, 12]\nclass = 1", fillcolor="#6ab6ec"] ;
228 -> 230 ;
231 [label="gender <= 55.5\ngini = 0.165\nsamples = 11\nvalue = [1, 10]\nclass = 1", fillcolor="#4da7e8"] ;
230 -> 231 ;
232 [label="annualsalary <= 64250.0\ngini = 0.5\nsamples = 2\nvalue = [1, 1]\nclass = 0", fillcolor="#ffffff"] ;
231 -> 232 ;
233 [label="gini = 0.0\nsamples = 1\nvalue = [1, 0]\nclass = 0", fillcolor="#e58139"] ;
232 -> 233 ;
234 [label="gini = 0.0\nsamples = 1\nvalue = [0, 1]\nclass = 1", fillcolor="#399de5"] ;
232 -> 234 ;
235 [label="gini = 0.0\nsamples = 9\nvalue = [0, 9]\nclass = 1", fillcolor="#399de5"] ;
231 -> 235 ;
236 [label="gender <= 57.5\ngini = 0.5\nsamples = 4\nvalue = [2, 2]\nclass = 0", fillcolor="#ffffff"] ;
230 -> 236 ;
237 [label="gini = 0.0\nsamples = 2\nvalue = [0, 2]\nclass = 1", fillcolor="#399de5"] ;
236 -> 237 ;
238 [label="gini = 0.0\nsamples = 2\nvalue = [2, 0]\nclass = 0", fillcolor="#e58139"] ;
236 -> 238 ;
239 [label="gini = 0.0\nsamples = 23\nvalue = [0, 23]\nclass = 1", fillcolor="#399de5"] ;
227 -> 239 ;
240 [label="gender <= 55.5\ngini = 0.155\nsamples = 118\nvalue = [10, 108]\nclass = 1", fillcolor="#4ba6e7"] ;
198 -> 240 ;
241 [label="annualsalary <= 111750.0\ngini = 0.229\nsamples = 76\nvalue = [10, 66]\nclass = 1", fillcolor="#57ace9"] ;
240 -> 241 ;
242 [label="gender <= 49.5\ngini = 0.059\nsamples = 33\nvalue = [1, 32]\nclass = 1", fillcolor="#3fa0e6"] ;
241 -> 242 ;
243 [label="annualsalary <= 98000.0\ngini = 0.165\nsamples = 11\nvalue = [1, 10]\nclass = 1", fillcolor="#4da7e8"] ;
242 -> 243 ;
244 [label="gini = 0.0\nsamples = 8\nvalue = [0, 8]\nclass = 1", fillcolor="#399de5"] ;
243 -> 244 ;
245 [label="gender <= 48.5\ngini = 0.444\nsamples = 3\nvalue = [1, 2]\nclass = 1", fillcolor="#9ccef2"] ;
243 -> 245 ;
246 [label="gini = 0.0\nsamples = 2\nvalue = [0, 2]\nclass = 1", fillcolor="#399de5"] ;
245 -> 246 ;
247 [label="gini = 0.0\nsamples = 1\nvalue = [1, 0]\nclass = 0", fillcolor="#e58139"] ;
245 -> 247 ;
248 [label="gini = 0.0\nsamples = 22\nvalue = [0, 22]\nclass = 1", fillcolor="#399de5"] ;
242 -> 248 ;
249 [label="annualsalary <= 117750.0\ngini = 0.331\nsamples = 43\nvalue = [9, 34]\nclass = 1", fillcolor="#6db7ec"] ;
241 -> 249 ;
250 [label="gender <= 51.0\ngini = 0.48\nsamples = 5\nvalue = [3, 2]\nclass = 0", fillcolor="#f6d5bd"] ;
249 -> 250 ;
251 [label="gini = 0.0\nsamples = 2\nvalue = [0, 2]\nclass = 1", fillcolor="#399de5"] ;
250 -> 251 ;
252 [label="gini = 0.0\nsamples = 3\nvalue = [3, 0]\nclass = 0", fillcolor="#e58139"] ;
250 -> 252 ;
253 [label="age <= 0.5\ngini = 0.266\nsamples = 38\nvalue = [6, 32]\nclass = 1", fillcolor="#5eafea"] ;
249 -> 253 ;
254 [label="annualsalary <= 137250.0\ngini = 0.175\nsamples = 31\nvalue = [3, 28]\nclass = 1", fillcolor="#4ea8e8"] ;
253 -> 254 ;
255 [label="annualsalary <= 133750.0\ngini = 0.32\nsamples = 15\nvalue = [3, 12]\nclass = 1", fillcolor="#6ab6ec"] ;
254 -> 255 ;
256 [label="gini = 0.0\nsamples = 9\nvalue = [0, 9]\nclass = 1", fillcolor="#399de5"] ;
255 -> 256 ;
257 [label="gender <= 50.0\ngini = 0.5\nsamples = 6\nvalue = [3, 3]\nclass = 0", fillcolor="#ffffff"] ;
255 -> 257 ;
258 [label="gini = 0.0\nsamples = 2\nvalue = [0, 2]\nclass = 1", fillcolor="#399de5"] ;
257 -> 258 ;
259 [label="annualsalary <= 136000.0\ngini = 0.375\nsamples = 4\nvalue = [3, 1]\nclass = 0", fillcolor="#eeab7b"] ;
257 -> 259 ;
260 [label="gini = 0.0\nsamples = 2\nvalue = [2, 0]\nclass = 0", fillcolor="#e58139"] ;
259 -> 260 ;
261 [label="gender <= 52.5\ngini = 0.5\nsamples = 2\nvalue = [1, 1]\nclass = 0", fillcolor="#ffffff"] ;
259 -> 261 ;
262 [label="gini = 0.0\nsamples = 1\nvalue = [0, 1]\nclass = 1", fillcolor="#399de5"] ;
261 -> 262 ;
263 [label="gini = 0.0\nsamples = 1\nvalue = [1, 0]\nclass = 0", fillcolor="#e58139"] ;
261 -> 263 ;
264 [label="gini = 0.0\nsamples = 16\nvalue = [0, 16]\nclass = 1", fillcolor="#399de5"] ;
254 -> 264 ;
265 [label="annualsalary <= 146750.0\ngini = 0.49\nsamples = 7\nvalue = [3, 4]\nclass = 1", fillcolor="#cee6f8"] ;
253 -> 265 ;
266 [label="annualsalary <= 130250.0\ngini = 0.375\nsamples = 4\nvalue = [3, 1]\nclass = 0", fillcolor="#eeab7b"] ;
265 -> 266 ;
267 [label="gini = 0.0\nsamples = 1\nvalue = [0, 1]\nclass = 1", fillcolor="#399de5"] ;
266 -> 267 ;
268 [label="gini = 0.0\nsamples = 3\nvalue = [3, 0]\nclass = 0", fillcolor="#e58139"] ;
266 -> 268 ;
269 [label="gini = 0.0\nsamples = 3\nvalue = [0, 3]\nclass = 1", fillcolor="#399de5"] ;
265 -> 269 ;
270 [label="gini = 0.0\nsamples = 42\nvalue = [0, 42]\nclass = 1", fillcolor="#399de5"] ;
240 -> 270 ;
}